<?xml version="1.0"?>
<opencv_storage>
<cascade>
  <stageType>BOOST</stageType>
  <featureType>HAAR</featureType>
  <height>30</height>
  <width>30</width>
  <stageParams>
    <boostType>GAB</boostType>
    <minHitRate>9.9500000476837158e-01</minHitRate>
    <maxFalseAlarm>5.0000000000000000e-01</maxFalseAlarm>
    <weightTrimRate>9.4999998807907104e-01</weightTrimRate>
    <maxDepth>1</maxDepth>
    <maxWeakCount>100</maxWeakCount></stageParams>
  <featureParams>
    <maxCatCount>0</maxCatCount>
    <featSize>1</featSize>
    <mode>BASIC</mode></featureParams>
  <stageNum>16</stageNum>
  <stages>
    <!-- stage 0 -->
    <_>
      <maxWeakCount>4</maxWeakCount>
      <stageThreshold>-1.7850770950317383e+00</stageThreshold>
      <weakClassifiers>
        <_>
          <internalNodes>
            0 -1 5 -8.0893728882074356e-03</internalNodes>
          <leafValues>
            3.5135135054588318e-01 -9.3346381187438965e-01</leafValues></_>
        <_>
          <internalNodes>
            0 -1 16 -5.4392199963331223e-03</internalNodes>
          <leafValues>
            5.4725635051727295e-01 -7.8100234270095825e-01</leafValues></_>
        <_>
          <internalNodes>
            0 -1 65 -8.6892247200012207e-03</internalNodes>
          <leafValues>
            4.1043066978454590e-01 -7.7428042888641357e-01</leafValues></_>
        <_>
          <internalNodes>
            0 -1 18 2.9086878057569265e-03</internalNodes>
          <leafValues>
            -4.8104155063629150e-01 7.5164502859115601e-01</leafValues></_></weakClassifiers></_>
    <!-- stage 1 -->
    <_>
      <maxWeakCount>6</maxWeakCount>
      <stageThreshold>-1.8502571582794189e+00</stageThreshold>
      <weakClassifiers>
        <_>
          <internalNodes>
            0 -1 19 5.6997921317815781e-02</internalNodes>
          <leafValues>
            -9.2210322618484497e-01 1.8750000000000000e-01</leafValues></_>
        <_>
          <internalNodes>
            0 -1 33 3.9403777569532394e-02</internalNodes>
          <leafValues>
            -7.0584177970886230e-01 5.2525204420089722e-01</leafValues></_>
        <_>
          <internalNodes>
            0 -1 62 4.3982248753309250e-03</internalNodes>
          <leafValues>
            -4.9002251029014587e-01 5.6705451011657715e-01</leafValues></_>
        <_>
          <internalNodes>
            0 -1 45 7.5322128832340240e-03</internalNodes>
          <leafValues>
            -3.6468595266342163e-01 6.8922775983810425e-01</leafValues></_>
        <_>
          <internalNodes>
            0 -1 26 -1.0010551661252975e-02</internalNodes>
          <leafValues>
            -9.0388280153274536e-01 2.8993999958038330e-01</leafValues></_>
        <_>
          <internalNodes>
            0 -1 8 3.0977740883827209e-02</internalNodes>
          <leafValues>
            3.4245631098747253e-01 -8.5433709621429443e-01</leafValues></_></weakClassifiers></_>
    <!-- stage 2 -->
    <_>
      <maxWeakCount>5</maxWeakCount>
      <stageThreshold>-1.7060604095458984e+00</stageThreshold>
      <weakClassifiers>
        <_>
          <internalNodes>
            0 -1 27 -2.4122966453433037e-02</internalNodes>
          <leafValues>
            8.1818181276321411e-01 -9.0648853778839111e-01</leafValues></_>
        <_>
          <internalNodes>
            0 -1 59 1.1736156418919563e-02</internalNodes>
          <leafValues>
            -6.4556014537811279e-01 6.6429144144058228e-01</leafValues></_>
        <_>
          <internalNodes>
            0 -1 44 7.5363954529166222e-03</internalNodes>
          <leafValues>
            -4.3756562471389771e-01 5.6905806064605713e-01</leafValues></_>
        <_>
          <internalNodes>
            0 -1 58 7.9745001858100295e-04</internalNodes>
          <leafValues>
            2.6409447193145752e-01 -9.1432571411132813e-01</leafValues></_>
        <_>
          <internalNodes>
            0 -1 0 6.1281060334295034e-04</internalNodes>
          <leafValues>
            1.9125597178936005e-01 -9.4783890247344971e-01</leafValues></_></weakClassifiers></_>
    <!-- stage 3 -->
    <_>
      <maxWeakCount>4</maxWeakCount>
      <stageThreshold>-1.4179890155792236e+00</stageThreshold>
      <weakClassifiers>
        <_>
          <internalNodes>
            0 -1 20 3.6788366734981537e-02</internalNodes>
          <leafValues>
            -9.1162341833114624e-01 4.4444444775581360e-01</leafValues></_>
        <_>
          <internalNodes>
            0 -1 72 3.0832331627607346e-02</internalNodes>
          <leafValues>
            -7.0436137914657593e-01 3.0528396368026733e-01</leafValues></_>
        <_>
          <internalNodes>
            0 -1 13 -5.5935903219506145e-05</internalNodes>
          <leafValues>
            -9.6267914772033691e-01 1.3572205603122711e-01</leafValues></_>
        <_>
          <internalNodes>
            0 -1 35 2.4128224700689316e-02</internalNodes>
          <leafValues>
            1.5102963149547577e-01 -9.4708967208862305e-01</leafValues></_></weakClassifiers></_>
    <!-- stage 4 -->
    <_>
      <maxWeakCount>4</maxWeakCount>
      <stageThreshold>-1.2678325176239014e+00</stageThreshold>
      <weakClassifiers>
        <_>
          <internalNodes>
            0 -1 43 3.0551485717296600e-02</internalNodes>
          <leafValues>
            -9.0987533330917358e-01 5.0000000000000000e-01</leafValues></_>
        <_>
          <internalNodes>
            0 -1 21 2.2373899817466736e-02</internalNodes>
          <leafValues>
            -6.2248373031616211e-01 7.0638215541839600e-01</leafValues></_>
        <_>
          <internalNodes>
            0 -1 34 -3.5920292139053345e-02</internalNodes>
          <leafValues>
            -9.7162920236587524e-01 1.4235378801822662e-01</leafValues></_>
        <_>
          <internalNodes>
            0 -1 74 3.5800279583781958e-03</internalNodes>
          <leafValues>
            1.2217281758785248e-01 -9.6306771039962769e-01</leafValues></_></weakClassifiers></_>
    <!-- stage 5 -->
    <_>
      <maxWeakCount>5</maxWeakCount>
      <stageThreshold>-2.0524640083312988e+00</stageThreshold>
      <weakClassifiers>
        <_>
          <internalNodes>
            0 -1 40 4.5128129422664642e-02</internalNodes>
          <leafValues>
            -9.0657770633697510e-01 1.</leafValues></_>
        <_>
          <internalNodes>
            0 -1 2 -1.7878791317343712e-02</internalNodes>
          <leafValues>
            -5.3559429943561554e-02 -7.8615784645080566e-01</leafValues></_>
        <_>
          <internalNodes>
            0 -1 75 -3.9076292887330055e-03</internalNodes>
          <leafValues>
            -7.9050248861312866e-01 2.5293701887130737e-01</leafValues></_>
        <_>
          <internalNodes>
            0 -1 36 -2.7548554353415966e-03</internalNodes>
          <leafValues>
            4.3524479866027832e-01 -4.8906809091567993e-01</leafValues></_>
        <_>
          <internalNodes>
            0 -1 77 4.4787288061343133e-04</internalNodes>
          <leafValues>
            1.8724377453327179e-01 -1.</leafValues></_></weakClassifiers></_>
    <!-- stage 6 -->
    <_>
      <maxWeakCount>5</maxWeakCount>
      <stageThreshold>-1.5259195566177368e+00</stageThreshold>
      <weakClassifiers>
        <_>
          <internalNodes>
            0 -1 25 -1.2722125649452209e-01</internalNodes>
          <leafValues>
            8.3333331346511841e-01 -9.0830945968627930e-01</leafValues></_>
        <_>
          <internalNodes>
            0 -1 68 7.0106596685945988e-03</internalNodes>
          <leafValues>
            -6.5444380044937134e-01 4.9845036864280701e-01</leafValues></_>
        <_>
          <internalNodes>
            0 -1 53 2.6248968206346035e-03</internalNodes>
          <leafValues>
            -3.9389801025390625e-01 5.2010452747344971e-01</leafValues></_>
        <_>
          <internalNodes>
            0 -1 23 1.6192791517823935e-03</internalNodes>
          <leafValues>
            -6.3396906852722168e-01 3.7763583660125732e-01</leafValues></_>
        <_>
          <internalNodes>
            0 -1 3 -1.0141187522094697e-04</internalNodes>
          <leafValues>
            -8.6090660095214844e-01 2.1756684780120850e-01</leafValues></_></weakClassifiers></_>
    <!-- stage 7 -->
    <_>
      <maxWeakCount>6</maxWeakCount>
      <stageThreshold>-1.8766523599624634e+00</stageThreshold>
      <weakClassifiers>
        <_>
          <internalNodes>
            0 -1 64 -1.2880524992942810e-01</internalNodes>
          <leafValues>
            3.6363637447357178e-01 -9.1513985395431519e-01</leafValues></_>
        <_>
          <internalNodes>
            0 -1 49 -6.2657229602336884e-02</internalNodes>
          <leafValues>
            8.3638924360275269e-01 -6.1145377159118652e-01</leafValues></_>
        <_>
          <internalNodes>
            0 -1 12 -5.1989387429784983e-05</internalNodes>
          <leafValues>
            -8.9325231313705444e-01 1.2879127264022827e-01</leafValues></_>
        <_>
          <internalNodes>
            0 -1 28 7.7607168350368738e-05</internalNodes>
          <leafValues>
            1.4572080969810486e-01 -8.8268357515335083e-01</leafValues></_>
        <_>
          <internalNodes>
            0 -1 14 6.5656922757625580e-02</internalNodes>
          <leafValues>
            1.9959387183189392e-01 -7.9671657085418701e-01</leafValues></_>
        <_>
          <internalNodes>
            0 -1 22 -5.5151437409222126e-03</internalNodes>
          <leafValues>
            -9.2687827348709106e-01 1.9787888228893280e-01</leafValues></_></weakClassifiers></_>
    <!-- stage 8 -->
    <_>
      <maxWeakCount>6</maxWeakCount>
      <stageThreshold>-1.7233927249908447e+00</stageThreshold>
      <weakClassifiers>
        <_>
          <internalNodes>
            0 -1 39 5.0978206098079681e-02</internalNodes>
          <leafValues>
            -9.0813398361206055e-01 5.7142859697341919e-01</leafValues></_>
        <_>
          <internalNodes>
            0 -1 1 -2.0098777487874031e-02</internalNodes>
          <leafValues>
            1.1030288413167000e-02 -7.3233741521835327e-01</leafValues></_>
        <_>
          <internalNodes>
            0 -1 10 7.2669790824875236e-05</internalNodes>
          <leafValues>
            8.2303233444690704e-02 -8.6329674720764160e-01</leafValues></_>
        <_>
          <internalNodes>
            0 -1 69 2.3687905631959438e-03</internalNodes>
          <leafValues>
            -3.2342645525932312e-01 5.4832649230957031e-01</leafValues></_>
        <_>
          <internalNodes>
            0 -1 7 1.6428997332695872e-04</internalNodes>
          <leafValues>
            3.2431903481483459e-01 -7.2735160589218140e-01</leafValues></_>
        <_>
          <internalNodes>
            0 -1 6 -2.8161675436422229e-04</internalNodes>
          <leafValues>
            -9.3094325065612793e-01 1.4218574762344360e-01</leafValues></_></weakClassifiers></_>
    <!-- stage 9 -->
    <_>
      <maxWeakCount>6</maxWeakCount>
      <stageThreshold>-1.6103297472000122e+00</stageThreshold>
      <weakClassifiers>
        <_>
          <internalNodes>
            0 -1 61 -6.0991443693637848e-02</internalNodes>
          <leafValues>
            8.0000001192092896e-01 -9.0467113256454468e-01</leafValues></_>
        <_>
          <internalNodes>
            0 -1 51 -4.4545298442244530e-03</internalNodes>
          <leafValues>
            2.2125819325447083e-01 -6.5925574302673340e-01</leafValues></_>
        <_>
          <internalNodes>
            0 -1 55 1.2154936484876089e-05</internalNodes>
          <leafValues>
            -5.8252048492431641e-01 3.3165320754051208e-01</leafValues></_>
        <_>
          <internalNodes>
            0 -1 17 -1.1073967441916466e-02</internalNodes>
          <leafValues>
            -8.2027417421340942e-01 2.0557363331317902e-01</leafValues></_>
        <_>
          <internalNodes>
            0 -1 63 2.1385401487350464e-02</internalNodes>
          <leafValues>
            1.5684647858142853e-01 -9.5084959268569946e-01</leafValues></_>
        <_>
          <internalNodes>
            0 -1 57 -1.6409328673034906e-03</internalNodes>
          <leafValues>
            2.8537163138389587e-01 -5.5604636669158936e-01</leafValues></_></weakClassifiers></_>
    <!-- stage 10 -->
    <_>
      <maxWeakCount>5</maxWeakCount>
      <stageThreshold>-1.5837652683258057e+00</stageThreshold>
      <weakClassifiers>
        <_>
          <internalNodes>
            0 -1 24 -1.6346698999404907e-01</internalNodes>
          <leafValues>
            1. -9.0657770633697510e-01</leafValues></_>
        <_>
          <internalNodes>
            0 -1 60 2.0908206701278687e-02</internalNodes>
          <leafValues>
            -6.3806992769241333e-01 4.9484667181968689e-01</leafValues></_>
        <_>
          <internalNodes>
            0 -1 46 1.0945431888103485e-02</internalNodes>
          <leafValues>
            1.5946659445762634e-01 -7.2333747148513794e-01</leafValues></_>
        <_>
          <internalNodes>
            0 -1 15 2.5961585342884064e-02</internalNodes>
          <leafValues>
            -3.9833745360374451e-01 5.1297050714492798e-01</leafValues></_>
        <_>
          <internalNodes>
            0 -1 9 -1.5426164492964745e-02</internalNodes>
          <leafValues>
            -7.1155470609664917e-01 2.3682095110416412e-01</leafValues></_></weakClassifiers></_>
    <!-- stage 11 -->
    <_>
      <maxWeakCount>6</maxWeakCount>
      <stageThreshold>-1.7560685873031616e+00</stageThreshold>
      <weakClassifiers>
        <_>
          <internalNodes>
            0 -1 24 -1.6447272896766663e-01</internalNodes>
          <leafValues>
            6.6666668653488159e-01 -9.0639925003051758e-01</leafValues></_>
        <_>
          <internalNodes>
            0 -1 30 1.5418533235788345e-02</internalNodes>
          <leafValues>
            -6.0432344675064087e-01 6.9774550199508667e-01</leafValues></_>
        <_>
          <internalNodes>
            0 -1 42 1.7986117745749652e-04</internalNodes>
          <leafValues>
            1.6947861015796661e-01 -7.3985654115676880e-01</leafValues></_>
        <_>
          <internalNodes>
            0 -1 70 -8.1677817433956079e-06</internalNodes>
          <leafValues>
            -6.7748147249221802e-01 2.1195347607135773e-01</leafValues></_>
        <_>
          <internalNodes>
            0 -1 73 -3.2358795404434204e-02</internalNodes>
          <leafValues>
            -7.7370381355285645e-01 2.0181646943092346e-01</leafValues></_>
        <_>
          <internalNodes>
            0 -1 11 -1.9658226519823074e-03</internalNodes>
          <leafValues>
            -1. 1.4692573249340057e-01</leafValues></_></weakClassifiers></_>
    <!-- stage 12 -->
    <_>
      <maxWeakCount>6</maxWeakCount>
      <stageThreshold>-2.1113727092742920e+00</stageThreshold>
      <weakClassifiers>
        <_>
          <internalNodes>
            0 -1 50 5.9808283112943172e-03</internalNodes>
          <leafValues>
            -9.0839695930480957e-01 1.</leafValues></_>
        <_>
          <internalNodes>
            0 -1 37 -2.8694748878479004e-02</internalNodes>
          <leafValues>
            5.6414920091629028e-01 -6.4701902866363525e-01</leafValues></_>
        <_>
          <internalNodes>
            0 -1 11 5.8788231399375945e-05</internalNodes>
          <leafValues>
            1.8738511204719543e-01 -6.2423992156982422e-01</leafValues></_>
        <_>
          <internalNodes>
            0 -1 31 3.5431486321613193e-04</internalNodes>
          <leafValues>
            -6.1327612400054932e-01 2.6949498057365417e-01</leafValues></_>
        <_>
          <internalNodes>
            0 -1 32 1.1364124715328217e-02</internalNodes>
          <leafValues>
            2.3030093312263489e-01 -8.2360112667083740e-01</leafValues></_>
        <_>
          <internalNodes>
            0 -1 29 1.1721820337697864e-03</internalNodes>
          <leafValues>
            -4.3151265382766724e-01 4.0918320417404175e-01</leafValues></_></weakClassifiers></_>
    <!-- stage 13 -->
    <_>
      <maxWeakCount>3</maxWeakCount>
      <stageThreshold>-1.6812226772308350e+00</stageThreshold>
      <weakClassifiers>
        <_>
          <internalNodes>
            0 -1 56 1.2817020760849118e-03</internalNodes>
          <leafValues>
            -9.1204589605331421e-01 1.</leafValues></_>
        <_>
          <internalNodes>
            0 -1 4 2.3569231416331604e-05</internalNodes>
          <leafValues>
            -1.5742072463035583e-01 -8.7803947925567627e-01</leafValues></_>
        <_>
          <internalNodes>
            0 -1 38 2.2523172447108664e-05</internalNodes>
          <leafValues>
            3.2721376419067383e-01 -6.1175602674484253e-01</leafValues></_></weakClassifiers></_>
    <!-- stage 14 -->
    <_>
      <maxWeakCount>5</maxWeakCount>
      <stageThreshold>-1.7098470926284790e+00</stageThreshold>
      <weakClassifiers>
        <_>
          <internalNodes>
            0 -1 47 2.4504857137799263e-03</internalNodes>
          <leafValues>
            -9.2122960090637207e-01 1.</leafValues></_>
        <_>
          <internalNodes>
            0 -1 66 3.6371764726936817e-03</internalNodes>
          <leafValues>
            -7.1510940790176392e-01 7.7502942085266113e-01</leafValues></_>
        <_>
          <internalNodes>
            0 -1 67 1.4074360478844028e-05</internalNodes>
          <leafValues>
            2.5186967849731445e-01 -8.0148011445999146e-01</leafValues></_>
        <_>
          <internalNodes>
            0 -1 54 -1.4158221893012524e-04</internalNodes>
          <leafValues>
            -5.1103639602661133e-01 5.0796818733215332e-01</leafValues></_>
        <_>
          <internalNodes>
            0 -1 76 1.3428376405499876e-04</internalNodes>
          <leafValues>
            3.3655595779418945e-01 -6.8222117424011230e-01</leafValues></_></weakClassifiers></_>
    <!-- stage 15 -->
    <_>
      <maxWeakCount>4</maxWeakCount>
      <stageThreshold>-1.5913083553314209e+00</stageThreshold>
      <weakClassifiers>
        <_>
          <internalNodes>
            0 -1 52 2.4764120462350547e-04</internalNodes>
          <leafValues>
            -9.4552528858184814e-01 1.</leafValues></_>
        <_>
          <internalNodes>
            0 -1 41 3.9960264984983951e-05</internalNodes>
          <leafValues>
            -8.4137946367263794e-01 1.</leafValues></_>
        <_>
          <internalNodes>
            0 -1 48 9.5469740699627437e-06</internalNodes>
          <leafValues>
            -6.4471739530563354e-01 8.5841518640518188e-01</leafValues></_>
        <_>
          <internalNodes>
            0 -1 71 2.0369099729578011e-05</internalNodes>
          <leafValues>
            -5.2536851167678833e-01 8.4031379222869873e-01</leafValues></_></weakClassifiers></_></stages>
  <features>
    <_>
      <rects>
        <_>
          0 2 2 12 -1.</_>
        <_>
          0 8 2 6 2.</_></rects>
      <tilted>0</tilted></_>
    <_>
      <rects>
        <_>
          0 3 4 27 -1.</_>
        <_>
          2 3 2 27 2.</_></rects>
      <tilted>0</tilted></_>
    <_>
      <rects>
        <_>
          0 4 9 26 -1.</_>
        <_>
          3 4 3 26 3.</_></rects>
      <tilted>0</tilted></_>
    <_>
      <rects>
        <_>
          0 5 1 6 -1.</_>
        <_>
          0 7 1 2 3.</_></rects>
      <tilted>0</tilted></_>
    <_>
      <rects>
        <_>
          0 6 1 6 -1.</_>
        <_>
          0 8 1 2 3.</_></rects>
      <tilted>0</tilted></_>
    <_>
      <rects>
        <_>
          0 8 2 17 -1.</_>
        <_>
          1 8 1 17 2.</_></rects>
      <tilted>0</tilted></_>
    <_>
      <rects>
        <_>
          0 11 1 4 -1.</_>
        <_>
          0 13 1 2 2.</_></rects>
      <tilted>0</tilted></_>
    <_>
      <rects>
        <_>
          0 11 1 6 -1.</_>
        <_>
          0 13 1 2 3.</_></rects>
      <tilted>0</tilted></_>
    <_>
      <rects>
        <_>
          0 13 30 8 -1.</_>
        <_>
          15 13 15 8 2.</_></rects>
      <tilted>0</tilted></_>
    <_>
      <rects>
        <_>
          0 14 30 12 -1.</_>
        <_>
          0 14 15 6 2.</_>
        <_>
          15 20 15 6 2.</_></rects>
      <tilted>0</tilted></_>
    <_>
      <rects>
        <_>
          0 15 1 3 -1.</_>
        <_>
          0 16 1 1 3.</_></rects>
      <tilted>0</tilted></_>
    <_>
      <rects>
        <_>
          0 17 1 9 -1.</_>
        <_>
          0 20 1 3 3.</_></rects>
      <tilted>0</tilted></_>
    <_>
      <rects>
        <_>
          0 19 1 3 -1.</_>
        <_>
          0 20 1 1 3.</_></rects>
      <tilted>0</tilted></_>
    <_>
      <rects>
        <_>
          0 27 1 2 -1.</_>
        <_>
          0 28 1 1 2.</_></rects>
      <tilted>0</tilted></_>
    <_>
      <rects>
        <_>
          2 0 27 14 -1.</_>
        <_>
          11 0 9 14 3.</_></rects>
      <tilted>0</tilted></_>
    <_>
      <rects>
        <_>
          2 1 11 18 -1.</_>
        <_>
          2 7 11 6 3.</_></rects>
      <tilted>0</tilted></_>
    <_>
      <rects>
        <_>
          2 3 3 19 -1.</_>
        <_>
          3 3 1 19 3.</_></rects>
      <tilted>0</tilted></_>
    <_>
      <rects>
        <_>
          2 4 20 10 -1.</_>
        <_>
          2 4 10 5 2.</_>
        <_>
          12 9 10 5 2.</_></rects>
      <tilted>0</tilted></_>
    <_>
      <rects>
        <_>
          2 10 3 13 -1.</_>
        <_>
          3 10 1 13 3.</_></rects>
      <tilted>0</tilted></_>
    <_>
      <rects>
        <_>
          2 13 26 6 -1.</_>
        <_>
          2 15 26 2 3.</_></rects>
      <tilted>0</tilted></_>
    <_>
      <rects>
        <_>
          2 18 25 3 -1.</_>
        <_>
          2 19 25 1 3.</_></rects>
      <tilted>0</tilted></_>
    <_>
      <rects>
        <_>
          3 0 18 2 -1.</_>
        <_>
          3 1 18 1 2.</_></rects>
      <tilted>0</tilted></_>
    <_>
      <rects>
        <_>
          3 4 18 2 -1.</_>
        <_>
          12 4 9 2 2.</_></rects>
      <tilted>0</tilted></_>
    <_>
      <rects>
        <_>
          3 7 12 14 -1.</_>
        <_>
          7 7 4 14 3.</_></rects>
      <tilted>0</tilted></_>
    <_>
      <rects>
        <_>
          3 7 8 20 -1.</_>
        <_>
          3 17 8 10 2.</_></rects>
      <tilted>0</tilted></_>
    <_>
      <rects>
        <_>
          3 14 24 6 -1.</_>
        <_>
          3 17 24 3 2.</_></rects>
      <tilted>0</tilted></_>
    <_>
      <rects>
        <_>
          3 16 20 6 -1.</_>
        <_>
          13 16 10 6 2.</_></rects>
      <tilted>0</tilted></_>
    <_>
      <rects>
        <_>
          3 25 12 3 -1.</_>
        <_>
          3 26 12 1 3.</_></rects>
      <tilted>0</tilted></_>
    <_>
      <rects>
        <_>
          3 26 2 4 -1.</_>
        <_>
          4 26 1 4 2.</_></rects>
      <tilted>0</tilted></_>
    <_>
      <rects>
        <_>
          4 18 16 6 -1.</_>
        <_>
          12 18 8 6 2.</_></rects>
      <tilted>0</tilted></_>
    <_>
      <rects>
        <_>
          5 2 10 3 -1.</_>
        <_>
          5 3 10 1 3.</_></rects>
      <tilted>0</tilted></_>
    <_>
      <rects>
        <_>
          5 11 6 17 -1.</_>
        <_>
          8 11 3 17 2.</_></rects>
      <tilted>0</tilted></_>
    <_>
      <rects>
        <_>
          5 17 14 9 -1.</_>
        <_>
          12 17 7 9 2.</_></rects>
      <tilted>0</tilted></_>
    <_>
      <rects>
        <_>
          5 18 24 6 -1.</_>
        <_>
          5 20 24 2 3.</_></rects>
      <tilted>0</tilted></_>
    <_>
      <rects>
        <_>
          6 0 18 28 -1.</_>
        <_>
          6 0 9 14 2.</_>
        <_>
          15 14 9 14 2.</_></rects>
      <tilted>0</tilted></_>
    <_>
      <rects>
        <_>
          6 2 12 28 -1.</_>
        <_>
          6 2 6 14 2.</_>
        <_>
          12 16 6 14 2.</_></rects>
      <tilted>0</tilted></_>
    <_>
      <rects>
        <_>
          6 13 22 8 -1.</_>
        <_>
          6 13 11 4 2.</_>
        <_>
          17 17 11 4 2.</_></rects>
      <tilted>0</tilted></_>
    <_>
      <rects>
        <_>
          6 14 6 12 -1.</_>
        <_>
          6 18 6 4 3.</_></rects>
      <tilted>0</tilted></_>
    <_>
      <rects>
        <_>
          6 17 4 11 -1.</_>
        <_>
          8 17 2 11 2.</_></rects>
      <tilted>0</tilted></_>
    <_>
      <rects>
        <_>
          6 18 22 3 -1.</_>
        <_>
          6 19 22 1 3.</_></rects>
      <tilted>0</tilted></_>
    <_>
      <rects>
        <_>
          6 27 19 3 -1.</_>
        <_>
          6 28 19 1 3.</_></rects>
      <tilted>0</tilted></_>
    <_>
      <rects>
        <_>
          7 2 3 4 -1.</_>
        <_>
          8 2 1 4 3.</_></rects>
      <tilted>0</tilted></_>
    <_>
      <rects>
        <_>
          7 2 20 4 -1.</_>
        <_>
          7 2 10 2 2.</_>
        <_>
          17 4 10 2 2.</_></rects>
      <tilted>0</tilted></_>
    <_>
      <rects>
        <_>
          8 27 15 3 -1.</_>
        <_>
          8 28 15 1 3.</_></rects>
      <tilted>0</tilted></_>
    <_>
      <rects>
        <_>
          9 4 3 24 -1.</_>
        <_>
          10 4 1 24 3.</_></rects>
      <tilted>0</tilted></_>
    <_>
      <rects>
        <_>
          9 7 3 21 -1.</_>
        <_>
          10 7 1 21 3.</_></rects>
      <tilted>0</tilted></_>
    <_>
      <rects>
        <_>
          9 8 14 18 -1.</_>
        <_>
          9 8 7 9 2.</_>
        <_>
          16 17 7 9 2.</_></rects>
      <tilted>0</tilted></_>
    <_>
      <rects>
        <_>
          9 14 2 8 -1.</_>
        <_>
          9 14 1 4 2.</_>
        <_>
          10 18 1 4 2.</_></rects>
      <tilted>0</tilted></_>
    <_>
      <rects>
        <_>
          9 15 2 8 -1.</_>
        <_>
          9 15 1 4 2.</_>
        <_>
          10 19 1 4 2.</_></rects>
      <tilted>0</tilted></_>
    <_>
      <rects>
        <_>
          10 1 14 6 -1.</_>
        <_>
          10 3 14 2 3.</_></rects>
      <tilted>0</tilted></_>
    <_>
      <rects>
        <_>
          11 24 9 2 -1.</_>
        <_>
          11 25 9 1 2.</_></rects>
      <tilted>0</tilted></_>
    <_>
      <rects>
        <_>
          12 9 2 18 -1.</_>
        <_>
          13 9 1 18 2.</_></rects>
      <tilted>0</tilted></_>
    <_>
      <rects>
        <_>
          12 21 6 7 -1.</_>
        <_>
          14 21 2 7 3.</_></rects>
      <tilted>0</tilted></_>
    <_>
      <rects>
        <_>
          13 15 8 3 -1.</_>
        <_>
          13 16 8 1 3.</_></rects>
      <tilted>0</tilted></_>
    <_>
      <rects>
        <_>
          14 5 8 11 -1.</_>
        <_>
          18 5 4 11 2.</_></rects>
      <tilted>0</tilted></_>
    <_>
      <rects>
        <_>
          14 14 16 3 -1.</_>
        <_>
          22 14 8 3 2.</_></rects>
      <tilted>0</tilted></_>
    <_>
      <rects>
        <_>
          14 24 1 3 -1.</_>
        <_>
          14 25 1 1 3.</_></rects>
      <tilted>0</tilted></_>
    <_>
      <rects>
        <_>
          15 7 12 14 -1.</_>
        <_>
          21 7 6 14 2.</_></rects>
      <tilted>0</tilted></_>
    <_>
      <rects>
        <_>
          15 26 12 3 -1.</_>
        <_>
          19 26 4 3 3.</_></rects>
      <tilted>0</tilted></_>
    <_>
      <rects>
        <_>
          16 0 9 3 -1.</_>
        <_>
          16 1 9 1 3.</_></rects>
      <tilted>0</tilted></_>
    <_>
      <rects>
        <_>
          16 5 9 6 -1.</_>
        <_>
          16 7 9 2 3.</_></rects>
      <tilted>0</tilted></_>
    <_>
      <rects>
        <_>
          17 14 11 6 -1.</_>
        <_>
          17 17 11 3 2.</_></rects>
      <tilted>0</tilted></_>
    <_>
      <rects>
        <_>
          18 5 3 19 -1.</_>
        <_>
          19 5 1 19 3.</_></rects>
      <tilted>0</tilted></_>
    <_>
      <rects>
        <_>
          18 5 10 22 -1.</_>
        <_>
          18 5 5 11 2.</_>
        <_>
          23 16 5 11 2.</_></rects>
      <tilted>0</tilted></_>
    <_>
      <rects>
        <_>
          18 7 9 18 -1.</_>
        <_>
          18 16 9 9 2.</_></rects>
      <tilted>0</tilted></_>
    <_>
      <rects>
        <_>
          18 8 12 17 -1.</_>
        <_>
          22 8 4 17 3.</_></rects>
      <tilted>0</tilted></_>
    <_>
      <rects>
        <_>
          18 21 2 6 -1.</_>
        <_>
          18 23 2 2 3.</_></rects>
      <tilted>0</tilted></_>
    <_>
      <rects>
        <_>
          20 23 6 7 -1.</_>
        <_>
          22 23 2 7 3.</_></rects>
      <tilted>0</tilted></_>
    <_>
      <rects>
        <_>
          21 0 5 3 -1.</_>
        <_>
          21 1 5 1 3.</_></rects>
      <tilted>0</tilted></_>
    <_>
      <rects>
        <_>
          22 17 6 3 -1.</_>
        <_>
          22 18 6 1 3.</_></rects>
      <tilted>0</tilted></_>
    <_>
      <rects>
        <_>
          23 2 3 9 -1.</_>
        <_>
          23 5 3 3 3.</_></rects>
      <tilted>0</tilted></_>
    <_>
      <rects>
        <_>
          25 24 5 6 -1.</_>
        <_>
          25 27 5 3 2.</_></rects>
      <tilted>0</tilted></_>
    <_>
      <rects>
        <_>
          26 1 4 29 -1.</_>
        <_>
          28 1 2 29 2.</_></rects>
      <tilted>0</tilted></_>
    <_>
      <rects>
        <_>
          27 0 3 30 -1.</_>
        <_>
          27 10 3 10 3.</_></rects>
      <tilted>0</tilted></_>
    <_>
      <rects>
        <_>
          29 0 1 24 -1.</_>
        <_>
          29 8 1 8 3.</_></rects>
      <tilted>0</tilted></_>
    <_>
      <rects>
        <_>
          29 1 1 27 -1.</_>
        <_>
          29 10 1 9 3.</_></rects>
      <tilted>0</tilted></_>
    <_>
      <rects>
        <_>
          29 3 1 21 -1.</_>
        <_>
          29 10 1 7 3.</_></rects>
      <tilted>0</tilted></_>
    <_>
      <rects>
        <_>
          29 20 1 6 -1.</_>
        <_>
          29 22 1 2 3.</_></rects>
      <tilted>0</tilted></_></features></cascade>
</opencv_storage>
